
%---------------------------------------------------------------------
%    parameters for Multi-layer Perceptron classification
%    DO NOT EDIT: indexing corresponds to trained mlp parameters
%
% Author: Sumit A. Raurale
%         ECIT, Queen's University Belfast, UK
%---------------------------------------------------------------------

% ================== TRAINED NEURAL NETWORK CONSTANTS ==================

% Input 1
x1_step1.xoffset = [-0.018120567719718;-0.0258405053051953;-0.0330061298971517;-0.0123288647676993;-0.0135379740619198;-0.0233174395226435;-0.0211682716618323;-0.0190809353893061];
x1_step1.gain = [38.5085568397822;34.0345991750974;37.663983744615;80.7268579212723;60.5657815679833;34.9010220521464;60.6042687836593;43.7323780197622];
x1_step1.ymin = -1;

% Layer 1
b1 = [0.95493574135046178;-1.3662842562284043;-1.2168943097405143;1.9403091405291928;0.77093590454141248;-1.5390910533674009;1.5536284364004243;-0.48805951609368259;-0.77581822949767953;0.022864772980851898;-2.4276038124597887;-0.10301345172890608;-0.94026825891642196;0.62651710560294782;-1.3711179717526414;1.3701362558993337;1.3520611480546494;0.6421339782729607];
IW1_1 = [-2.5629368661494603 -1.0715212743231799 -0.87169201668773022 0.17296889951930089 -0.51258916384825404 0.82294213700419194 0.99436607813556177 0.39223210292876876;0.51337067638748568 3.4309694786712637 0.23875208224540187 -0.30473266629762807 -1.9264708778950923 1.1250087602315466 0.427249152569807 4.8494813294409411;-0.0052705269823664358 -0.61006118155182343 -0.44749002411188887 1.4858183571060808 -0.38790225814018453 0.66562982924635672 1.7069624453826262 0.75082094624032036;-1.4381692858642305 0.51251921927784805 -2.6880634921533639 2.6684318293892844 0.2201399711203918 3.4251205466827379 1.6214639430493789 0.79493191765991766;1.1138795397410812 3.3231360945818076 -0.050245771605065478 1.6464558614391742 1.0448542602255002 -1.1231765773008888 -2.1901526349911311 -0.74267902514382911;-0.036857384556133257 2.0606086665814614 0.72423414861621283 -0.81938804745177762 0.021035383987878895 -1.7154477589881596 -0.047079542149393916 0.44093236455624873;0.59925748830204217 1.3113663131044317 -0.85619993522750293 -1.3341201783538978 -0.071941369767289293 1.4567155448233562 0.060551599235226322 1.0845452110754366;-0.44766649026734334 1.8563642034206946 -1.336697198176263 -0.94209575254837064 0.71523991482533744 -3.7390231379086178 -3.360660860594356 -1.2595669159407845;-1.4568138656848073 -1.2485472612693789 0.44132472792960176 -0.4014575269894512 -0.71214607018391607 -0.62344398806888568 0.33489759461807811 2.0523029639734895;1.5861998372342669 0.79737267202058704 4.3991437723152957 2.1618654739481107 1.5465860557879623 3.8655286910137829 0.76133609184451689 -0.48944411500672214;-3.6361690068036188 -2.3046683795324401 0.37288538889685396 -1.5417182683346569 -0.018266253725832113 1.7202534450497582 -1.8953835502952303 -1.1008509464479566;-3.2656571964492613 0.89925659167159644 1.0351793072576083 0.56763508040261601 2.1307175224341912 0.3553546176101281 -0.68192870377047121 -0.66403823028252906;-2.6897063933793 0.18872283820787086 -1.3951964882158425 -0.82237334999205136 -0.0023925320417945116 1.3477112164982437 -2.7233287443708143 1.9439353741840919;0.22084365349985957 -2.9862621136347576 1.3551345578253349 0.97912768455937582 -3.460231185731772 -1.3747446389330913 -1.7595328951356963 -0.36536675175514177;0.11491064717169372 0.022519057713613427 -3.9598638887667477 1.3007129614745372 0.33139144573369983 -0.60132413564689868 0.71729154786918037 -0.40204612844439808;0.41487629354421818 3.0331352443697237 0.10887263400104752 3.0614126859376252 -2.0065516173062847 0.92423917772547315 0.98649266910914823 2.6122829234865215;2.0060421915185809 0.10326034054473698 0.76647569226009915 0.17993391112872986 -0.77101401745568621 -2.8629190041012063 0.075870973450766613 1.731017087634235;-0.25798454467979481 -0.50861853260402157 1.0441154025906498 0.37798489279794967 1.514082250497724 -0.25049592183651215 0.60523479072342401 0.87209001129162522];

% Layer 2
b2 = [-2.2366779955690697;-2.4024598371768588;-0.6270949498383358;-1.2137948706808515;-0.11359510850404585;-3.1812290881284415;-2.6566856308757409;-4.5985996110464429;-2.5981698327403397];
LW2_1 = [-0.03808414508896521 -0.40781563060089898 -0.71444510696741892 -0.033274938046257294 0.90472256349878322 -0.15679201827440589 -1.0482079729825011 0.38198524373480558 1.1059947796508862 0.52029716070235354 -0.15569078275305537 -0.57306201334633211 0.19561206084483362 -0.81509772214123966 -0.86958672782564073 -0.51536717977872104 0.27738256307742476 -0.94209638103511051;-1.2228136990567202 -0.88487440255008609 0.32608070681077334 -0.49421685319015335 -0.52175639201311319 -2.0142637455679449 0.98549112750355883 1.9101505829608461 -0.20516527965597831 1.1784833349722275 -0.025404522683982925 0.82189479091723872 -1.5130947624934672 -1.0467153019112529 -0.67318561022153445 -0.19488995479933457 0.30065187234093316 -0.30943419884872381;2.4061801213703582 1.4612902221670185 -0.879644335390251 -0.36052561283164541 -1.3030014195433988 0.18988800683252238 -1.9960267966717964 1.7948470620851558 -0.52826849398395048 1.1239802834844417 0.016269578361898421 1.1362044326492404 -2.4019892069826869 -1.4341648544634817 -2.2671626782575238 0.49340881711153489 0.080942548449558005 -3.8548144904643462;-3.605071217190817 -0.78963423835487856 1.4691922083703075 -1.0945623970610188 0.93912175862677794 -4.029763012412964 -0.23331387017237806 -0.69835201763402144 1.6894089380281279 -0.15137709581646575 -0.62309075618461573 0.50953566082878021 -2.8395999766422206 -2.4071836310608323 -4.800988750707587 -1.1282982823054286 -0.32817236428649588 -4.5727516824035215;1.5876366836371834 -0.073914384465541466 2.3823247573942639 -1.5940374333332175 0.2747207096224904 0.99992277836557031 0.25519455055828594 -1.1906856849828586 -1.1435694173804052 -0.55631914019072481 0.73709509048982647 1.5093146569882314 1.1953163306479002 -1.5917372958416149 -2.6573973796841388 1.7775105781689124 0.087464183538456974 1.3994405840557023;-1.1601686319154572 0.4281046307494184 1.3917618054264849 -2.2312545681592386 0.76664548897434126 -4.5714691245178551 0.21591361312968921 -0.14485631073468577 0.120079628978585 -0.27547945508324378 0.28735931685489402 -0.74146090991682956 -3.0102489458774842 -0.80544660057806361 -1.4120639774525043 0.33755136442966516 -1.344213561571743 2.8487954371566837;-0.77926957362808902 -0.19394552468294121 0.86979002039712694 -0.24399284494091597 -0.4605370279023554 0.99081651514949165 -1.8572259550213757 0.37483777386866357 -2.2822640974394206 0.41471506149587162 -1.4817607268603561 -2.451857746402172 0.099402654622146272 0.77860727795299645 -1.6378366492204124 1.2264672440541595 -0.6175571049341434 -0.46150278764184754;-2.4337574324373543 -0.62793316594385762 -1.8080055796072392 0.76587321520620166 -1.7850302769462185 -3.11614292693291 -0.83608110269444136 2.8342813868296037 0.82657666596654522 1.1097160328130904 -1.8434958515163948 -0.067765295860009664 0.69319215124333255 1.7869508865920913 -0.42132193577280902 -0.71982393712216663 -2.2514038792674747 1.594771222451338;-0.31769066664961915 -1.3470489811720798 -0.61438420810866412 -0.56805950665703886 1.1634323243168994 -2.9426102518612778 -0.048320892880206787 0.34709346306549549 2.6112654464313123 -0.5302084002414561 0.12794054191206322 0.63128489128712062 1.7288779216480019 -0.49587458332545953 -0.41036026769463652 0.57648231050520993 -0.33315396579396278 -1.4118762992498501];

% Layer 3
b3 = [-4.4579537309494359;-1.7323660738730846;-4.4209238193686451;2.5697834161239776;1.8604979430919175;-2.4335584666497247;1.919079241033335;0.7573250960682808;1.6860312447238772;-1.4644506234470462;-0.41791986981975449;-2.1797532415011394;-1.69686240022624;-0.66790382367717527;-1.8962942105413674;1.6603055888810661;-3.699942664323669;-0.79861232189386666];
LW3_2 = [3.3945395553696116 1.1165696876947848 0.87593673302332753 -2.2500624311868047 1.1822704747243904 -2.1253018794289851 0.088305809604274033 -0.78697226777111551 -3.7162186106225663;0.5520954084125872 0.77873771685297211 0.49147560755086694 0.6831838981709486 0.89027488126898724 -1.215177004747128 0.4098649648115732 0.11770350668300449 0.78680138478614758;3.0438921200302063 -2.3219956282579846 2.9711487491250388 -1.34634742770563 0.9130608699144237 3.9121832867138862 1.2888522781265539 -3.3517680339066955 0.40966041772951856;-1.5484759024285317 -0.1603806303249091 -2.0423413341587082 -0.60023184482435554 -0.38415888452926561 0.86576570919310114 0.18523101275703135 2.9027791234645486 1.805835387831306;-2.1362036947683665 1.1147064789399437 1.216365600107701 -1.6070287717769813 0.55195335875501861 -1.0601691452269739 1.8667423956417744 -0.77226513058532753 -0.10809172664064907;1.8572916777862267 0.72525423104688613 -1.0867451398418937 0.39991987528952966 1.1024449318942806 -1.4245604427949696 -0.94315984167137801 0.43921432918393288 -2.0859804441340124;-1.5681862258721639 -2.0413871570654587 -1.7370190580488487 0.89152867421145221 -2.1497008531046391 0.92011500997837126 -0.58713561037306039 1.0486900803989612 0.85379963836359507;-0.5067503643741883 -0.21958789659834754 1.8966254439302455 0.43898657428737387 0.65122023849112387 -1.4862452248966864 -0.95892934665018736 0.90954183431546631 -0.54432792382116379;-2.8800272072204236 1.8943297544426239 -2.196671751402052 0.4178642555502789 0.4683853762934137 -0.16678698733207381 0.7851672778270572 -3.2757323154364566 1.3892309731539976;1.5690278340342059 0.53370179829508457 0.563697822858507 -0.35212802945806898 0.74540514558505577 0.12711923265456052 1.2104747241147362 0.57113180664654284 0.028043640379643499;1.2909652194867873 -0.57577864622477359 -1.0303150671430981 0.56310996430467619 -1.7043807066200909 -1.3694972617033867 0.58195937558068089 -1.8123664530556449 -1.9528936268022155;3.3160359114721745 0.8063145330056718 -1.5793653874904832 0.33443202611351008 2.5285826693885052 0.08470207871478895 -1.8565471261130877 -0.066581914007736387 -2.0638538794424646;0.81238399136185768 0.54987734760216056 0.57576963833318018 -0.22048176339111447 -0.011885499899944307 -0.098734276187875183 0.77930984853697471 -0.25110060572144211 1.1131129081203637;2.3201937078245822 -1.1232301615578797 0.12481965164860563 1.6915548700878007 -0.15524842841482428 -0.00099762741743960291 -0.32121501205116204 1.4557084544074583 0.39900005597757049;0.72349394431255654 0.58369344319175775 -0.62342422185519308 -0.13594301754417787 0.82504783930498549 -0.94514378047725778 -0.54943316997671243 -0.010647590995861878 -0.90302345557656771;0.28829520496347305 0.79235639990929985 0.93331243377690631 3.0655696647962856 1.1440022416375109 0.15157546816245387 -0.30685277918094855 0.89461215693717588 -2.0681048972565907;1.7824042757435714 0.27149053280510094 -1.375095939433602 -2.8203496674671937 -2.1885484944597433 -0.89282886859339028 0.24980284552302628 -2.1635296843036405 -1.0717066870280136;-1.5452790667120544 -2.1421078588971079 1.8178479376352688 -0.61625700225921676 -1.3722904206280795 1.0119653811917739 -3.5109935137216932 -0.99791556636323353 0.74595347899443476];

% Layer 4
b4 = [0.16329917355842369;-0.54906858083605903;-1.3964025900771122;-0.25071651529407901;-0.21366755948592306;-1.0611138420961974;0.14877072500009489;-0.5108019139962543;-1.3919213714496432];
LW4_3 = [0.0013744414156196269 -0.014701435724035865 -0.0015926716573598223 -0.0039549859710423822 -0.0066834384427419818 0.0077951615582115552 0.0057987936926164564 0.0019996233919467414 -0.0020619593997129662 -0.47738721093537606 -0.0033665508594071022 -0.0015948649498898097 0.63843978747928876 -0.0084746655527253509 0.011303382865450899 0.0022532247196472696 0.0045640285322627108 -1.0075225522400646;0.98151877831457668 -0.05169164478533822 0.020773500722363156 0.015246925333321022 0.04936328956098688 -0.1682330862441172 -0.028254624585634554 -0.036462427003728808 -0.0078036533044037789 -0.84925973718701409 0.021973178138479134 -0.0030040126462342939 0.44353048534000467 0.050326659810791589 0.10073270775767272 -0.0011661950254231741 -0.040431000897917277 0.049908189527720151;-0.055289498954255958 -0.87561121582008739 -0.34233529417553277 0.20692583919878393 0.12041628473585128 1.1435647856110385 0.0092839477835834211 0.10782586991450761 0.57315883121654199 1.0211670090041185 -0.38375318187881735 -0.42910565191934491 0.18628786320873114 0.086375165886692584 -0.69635856782195649 -0.49575103353559219 -0.62117142478192844 0.10461698981976264;-0.0028474956636411527 -0.12888074418544571 -0.035618705970669962 0.10920862279854905 0.074129400463871467 0.011798423228775799 0.0037061391384671898 0.049851347764241022 -0.83986502825885945 0.17495126027267588 -0.0076487185803675688 -0.018644794313490195 -0.055713013541078105 0.12593527237143001 -0.0072420889585400675 0.11510575915680213 0.020458519979561326 0.068183273792403964;-0.0017954040613207128 -0.15980357649710489 1.0184781325179142 0.057286139250760246 0.047388848375339923 0.083273240420552758 -0.01412670050964393 0.0049696058250223475 0.050615488774357301 0.2410079681997756 -0.0092313888099430988 -0.032419587681506018 -0.23208671133948039 0.027486120616836009 -0.029949014518382708 0.045395144717323782 -0.00250047037117343 0.04670161889532301;-0.4067706114114884 -0.03410582662154505 -0.05803533250918938 0.11005961235868676 0.12742286207462838 -1.3605402279912897 -0.35945490991489337 -0.0091780279086180663 0.051655300641769569 -0.026942764320240922 0.053353185379555274 0.86225061843642137 0.39594706707618227 0.10095072180937883 0.44803270075280777 0.11051946069964753 -0.0025433974821823385 0.12353241670943443;-0.0041394757711347638 0.023881722647957161 -0.011142965756797503 0.01172131870097828 -0.0021650856874324068 0.080227850808786791 -0.0052354000577462577 0.012205702043803706 0.024285131195268386 0.074489044864745169 -0.015076409887836033 -0.020889770578305801 0.077454054149870763 -0.0021832211542205087 -0.053723387973222063 0.028574343138499967 1.0213135399638031 0.0014554125960030764;-0.018609935615523519 0.090826852892470999 0.021222590304839244 0.08595305012132802 -0.98534986220513976 0.090587204488734113 -0.052654391267349263 0.039815453047654686 0.040433547361054971 0.75657554942218042 0.056274420019782515 -0.019630052311295221 -0.26986500793344581 -0.97000274221399396 -0.064315231243678189 0.034884423882897572 -0.045081215509181545 0.063365793073291127;-0.49503619774833674 1.0994393494088781 -0.61077275834632239 -0.59451552024263599 0.57505197742045222 0.10461709681802368 0.44214555667017647 -0.17220529743158053 0.10763665717938933 -0.20907642547197827 0.28945326817476841 -0.33626199441013038 0.10363451518957996 0.5886901312505276 0.29897992494489406 0.16165351056193994 -0.3331560651042168 0.55295097437216412];

% Output 1
y1_step1.ymin = -1;
y1_step1.gain = [1;1;1;1;1;1;1;1;1];
y1_step1.xoffset = [-1;-1;-1;-1;-1;-1;-1;-1;-1];
